{
  "width": 35,
  "height": 35,
  "x": 50,
  "y": 295.3054335207019,
  "gravity": 0.6,
  "jump": 15,
  "velocity": 1.8155033768056716,
  "score": 932568757,
  "normScore": 0,
  "brain": {
    "inputNodes": 5,
    "hiddenNodes": 12,
    "outputNodes": 2,
    "weightsIH": {
      "rows": 12,
      "cols": 5,
      "data": [
        [
          -0.5500158761170546,
          -0.10991972896381741,
          0.3218435463158067,
          0.37817501337581905,
          0.3302957194687972
        ],
        [
          -0.8406233650698396,
          0.10680014878728872,
          0.8819356581474453,
          -0.9272834093125848,
          -0.8939104189861204
        ],
        [
          0.5496374507093456,
          0.020970937899066566,
          0.011280578250111972,
          -0.7881159683174075,
          0.6932404316551639
        ],
        [
          -0.2797383719699216,
          -0.6690546115036493,
          -0.6736056477730397,
          -0.2814256931676331,
          0.37249617977727967
        ],
        [
          0.8747547274142919,
          0.7835400781307802,
          -0.3301965396247297,
          -0.16484090017170683,
          -0.5590692442734255
        ],
        [
          0.20348496079864065,
          -0.6033749596922999,
          -0.8770616524083708,
          0.8116690646053257,
          -0.7305151120907611
        ],
        [
          0.11456290442179595,
          0.59460378498012,
          -0.8442794911037481,
          -0.5116975772091403,
          0.06856701863347792
        ],
        [
          -0.17587161990946898,
          0.7182581018864491,
          0.7067241037984062,
          -0.2970145668982358,
          0.3935753830299642
        ],
        [
          -0.8499457363775977,
          -0.6239145210867529,
          -0.8931611914617159,
          0.004614883620140731,
          -0.2781343340582163
        ],
        [
          -0.32015267900304645,
          -0.39862649914978965,
          -0.3955691234968801,
          0.46442566290429177,
          0.5026864547945444
        ],
        [
          0.07401284935276675,
          -0.8941811874992203,
          1.0158534803894783,
          -0.43702234478434243,
          0.7989205037225549
        ],
        [
          0.8766652100077841,
          -0.8848199680048823,
          -0.14818350206156272,
          -0.29524685582521815,
          1.0526775503762966
        ]
      ]
    },
    "weightsHO": {
      "rows": 2,
      "cols": 12,
      "data": [
        [
          -0.24172547568807756,
          -0.28363359476886174,
          0.5768530377019065,
          0.7698333067201002,
          0.3222939019507569,
          0.7458709968542081,
          -0.250400265873294,
          -0.9424108193888348,
          -0.09194945828615708,
          -0.02630919963236611,
          -0.392141626970929,
          0.490062394277319
        ],
        [
          0.7703770414379956,
          0.867649538457163,
          -0.6453444650913922,
          -0.3024717316638492,
          -0.2459337518929865,
          -0.0987586280449273,
          -0.1240707555903291,
          -0.43311649568210187,
          0.505027765783248,
          0.7426966329570717,
          0.8120594313444829,
          -0.6933767817557133
        ]
      ]
    },
    "biasIH": {
      "rows": 12,
      "cols": 1,
      "data": [
        [
          -0.009171464661963169
        ],
        [
          0.3652523264403018
        ],
        [
          -1.0599652638634327
        ],
        [
          -0.5147291284708415
        ],
        [
          0.018802860003225286
        ],
        [
          0.9559237195405026
        ],
        [
          -0.2844898972201071
        ],
        [
          -0.8308001302275532
        ],
        [
          -0.1917559858936717
        ],
        [
          0.18133691051547496
        ],
        [
          -0.5430614853990927
        ],
        [
          0.008588878639125275
        ]
      ]
    },
    "biasHO": {
      "rows": 2,
      "cols": 1,
      "data": [
        [
          0.5805445006290895
        ],
        [
          0.32359476311808466
        ]
      ]
    }
  }
}
