{
  "width": 35,
  "height": 35,
  "x": 50,
  "y": 107.41486474907857,
  "gravity": 0.6,
  "jump": 15,
  "velocity": 2.704480802680013,
  "score": 517,
  "normScore": 0.006056913902784775,
  "brain": {
    "inputNodes": 5,
    "hiddenNodes": 12,
    "outputNodes": 2,
    "weightsIH": {
      "rows": 12,
      "cols": 5,
      "data": [
        [
          0.7097947702296747,
          0.2254641270951927,
          -0.9278312464868312,
          -0.7101012926652226,
          0.28563583703392137
        ],
        [
          0.8934208041138949,
          -0.01830263856295833,
          -0.45154433534363037,
          0.37962282733109065,
          -0.4158368324971098
        ],
        [
          -0.8698850828166425,
          -0.24550287004248572,
          0.9128202245472701,
          -0.362080866576318,
          -0.048709081246605335
        ],
        [
          -0.3249827816646804,
          -0.7235085722189729,
          0.6022342965765843,
          -0.3688505303729359,
          -0.5906682817905047
        ],
        [
          -0.8415876767409918,
          -0.8699523950659831,
          -0.8401133859712671,
          0.797833735172812,
          -0.7587729244156458
        ],
        [
          0.7716787518717285,
          0.5059180826912626,
          -0.19714206013419355,
          0.4875907396694066,
          1.281725191798091
        ],
        [
          0.4730543525180071,
          0.4021680448649383,
          0.34197539750925143,
          0.3903097040854815,
          -0.8192496016117943
        ],
        [
          -0.7897165572679792,
          0.060696492017606296,
          -0.47415624619609775,
          0.43087511310303195,
          0.5444743863103825
        ],
        [
          -0.9693955491927588,
          -1.1232980597636635,
          0.05020775381356124,
          -1.3588784904426585,
          0.24091426216566725
        ],
        [
          -0.775570981470115,
          -0.40670113912529127,
          0.46601107985543,
          -0.15298104421751169,
          -0.6017857023826201
        ],
        [
          -0.9533264376459303,
          -0.6511680822320027,
          -0.2221497792655187,
          -0.1405564311482701,
          -0.6545094326334848
        ],
        [
          -0.4925504195803463,
          0.7028065845839913,
          0.3537503970337541,
          0.21733585581944936,
          0.7281114638268096
        ]
      ]
    },
    "weightsHO": {
      "rows": 2,
      "cols": 12,
      "data": [
        [
          1.043053493087316,
          0.2919122448583713,
          0.24494884939292927,
          -0.11936606920357873,
          -0.10939273325673815,
          0.05800231680382861,
          -0.9659156843375105,
          -0.5739730035868322,
          -0.13747635790822255,
          -0.6755803959327795,
          0.9184836618997672,
          -0.5035915639149033
        ],
        [
          0.18583616411909665,
          -0.8515637565994321,
          0.6381297899386307,
          0.6063492435985487,
          0.9303312107513091,
          0.5887703763619827,
          -0.2131971484189057,
          0.267594827026139,
          1.0064488074775,
          0.31903719539499553,
          0.12245436195884762,
          -0.49548187113124653
        ]
      ]
    },
    "biasIH": {
      "rows": 12,
      "cols": 1,
      "data": [
        [
          0.09481037492893418
        ],
        [
          0.7367311552790343
        ],
        [
          0.0645001389259039
        ],
        [
          -0.5434693252947804
        ],
        [
          0.09224192809229592
        ],
        [
          0.27469015744975955
        ],
        [
          -1.073551147863155
        ],
        [
          -0.2573745478908096
        ],
        [
          -0.6044817752766303
        ],
        [
          0.7817144203357866
        ],
        [
          0.45728517888167053
        ],
        [
          0.6451033466363145
        ]
      ]
    },
    "biasHO": {
      "rows": 2,
      "cols": 1,
      "data": [
        [
          0.34181851507464556
        ],
        [
          -0.7215119945202466
        ]
      ]
    }
  }
}
